{
  "format": "bdc-model/1",
  "architecture": "mlp",
  "task": "multiclass-classification",
  "layers": [
    {
      "name": "dense1",
      "shape": [
        64,
        16
      ],
      "weights": [
        [
          -0.917,
          0.744,
          0.044,
          -0.796,
          0.751,
          -0.269,
          0.062,
          -0.21,
          -0.155,
          0.447,
          -0.63,
          0.007,
          0.57,
          0.91,
          -0.602,
          -0.633
        ],
        [
          0.229,
          -0.943,
          0.785,
          -0.619,
          -0.627,
          0.491,
          -0.343,
          -0.249,
          0.011,
          0.141,
          -0.421,
          -0.141,
          0.074,
          0.467,
          -0.878,
          0.506
        ],
        [
          -0.375,
          0.757,
          0.962,
          -0.894,
          0.135,
          -0.192,
          0.816,
          -0.81,
          0.287,
          -0.449,
          -0.548,
          -0.268,
          0.602,
          -0.28,
          -0.053,
          0.519
        ],
        [
          0.846,
          -0.522,
          -0.939,
          0.885,
          -0.152,
          0.941,
          0.408,
          -0.333,
          -0.634,
          -0.19,
          0.006,
          -0.003,
          0.93,
          -0.106,
          -0.286,
          0.776
        ],
        [
          -0.958,
          0.403,
          -0.496,
          -0.307,
          -0.907,
          0.278,
          0.905,
          -0.577,
          -0.601,
          0.953,
          -0.68,
          -0.725,
          -0.8,
          0.805,
          0.832,
          0.534
        ],
        [
          0.476,
          -0.697,
          -0.605,
          -0.044,
          0.562,
          0.903,
          0.064,
          0.948,
          0.881,
          -0.245,
          -0.746,
          -0.798,
          0.382,
          0.447,
          -0.778,
          0.208
        ],
        [
          0.766,
          0.343,
          -0.159,
          -0.847,
          -0.119,
          0.543,
          -0.749,
          0.662,
          0.561,
          0.396,
          -0.466,
          -0.524,
          0.892,
          0.71,
          0.127,
          0.107
        ],
        [
          -0.132,
          -0.57,
          0.604,
          0.102,
          0.818,
          -0.039,
          0.236,
          0.354,
          -0.689,
          0.878,
          0.803,
          0.651,
          0.013,
          0.538,
          -0.193,
          -0.38
        ],
        [
          -0.466,
          0.656,
          -0.782,
          -0.935,
          0.86,
          -0.567,
          0.912,
          0.552,
          0.846,
          -0.003,
          0.379,
          -0.353,
          -0.549,
          0.877,
          -0.86,
          0.8
        ],
        [
          0.693,
          0.027,
          0.987,
          -0.083,
          0.579,
          -0.538,
          -0.241,
          0.066,
          -0.139,
          0.227,
          0.743,
          0.085,
          0.037,
          -0.676,
          0.436,
          0.292
        ],
        [
          0.487,
          -0.867,
          0.848,
          -0.83,
          0.67,
          -0.066,
          -0.094,
          0.827,
          -0.377,
          -0.041,
          -0.747,
          -0.72,
          0.19,
          0.104,
          0.562,
          -0.278
        ],
        [
          -0.363,
          -0.405,
          0.082,
          0.701,
          -0.272,
          0.678,
          -0.456,
          -0.573,
          -0.748,
          0.392,
          -0.712,
          0.42,
          -0.855,
          -0.978,
          0.243,
          -0.901
        ],
        [
          0.257,
          0.209,
          -0.304,
          -0.319,
          0.375,
          -0.291,
          -0.235,
          -0.791,
          -0.273,
          -0.807,
          -0.127,
          -0.869,
          0.242,
          -0.881,
          -0.136,
          0.126
        ],
        [
          -0.986,
          -0.539,
          0.984,
          0.092,
          -0.715,
          0.697,
          -0.081,
          0.675,
          -0.697,
          0.947,
          0.742,
          -0.193,
          0.788,
          0.455,
          0.392,
          -0.764
        ],
        [
          -0.677,
          0.287,
          -0.177,
          0.282,
          -0.745,
          0.415,
          0.258,
          -0.704,
          -0.186,
          0.042,
          0.226,
          -0.045,
          -0.181,
          0.945,
          0.902,
          0.271
        ],
        [
          0.477,
          0.57,
          0.168,
          -0.753,
          0.728,
          0.161,
          0.101,
          -0.275,
          0.999,
          -0.953,
          -0.271,
          -0.734,
          0.391,
          -0.1,
          -0.18,
          0.203
        ],
        [
          0.315,
          -0.534,
          0.889,
          -0.246,
          0.654,
          -0.111,
          -0.498,
          0.441,
          0.147,
          -0.359,
          -0.081,
          0.535,
          -0.72,
          -0.541,
          0.129,
          -0.343
        ],
        [
          -0.737,
          0.735,
          0.437,
          -0.925,
          -0.433,
          0.038,
          -0.551,
          -0.241,
          -0.68,
          0.375,
          0.158,
          0.285,
          -0.867,
          0.895,
          -0.135,
          0.337
        ],
        [
          0.67,
          -0.057,
          -0.85,
          -0.809,
          0.598,
          -0.615,
          0.64,
          0.897,
          -0.791,
          -0.586,
          0.574,
          0.717,
          -0.699,
          0.966,
          -0.406,
          -0.534
        ],
        [
          0.476,
          -0.045,
          0.272,
          -0.709,
          0.879,
          -0.713,
          0.269,
          0.226,
          0.314,
          0.839,
          -0.618,
          0.011,
          0.727,
          -0.672,
          -0.099,
          -0.971
        ],
        [
          0.563,
          -0.431,
          0.122,
          0.35,
          0.8,
          0.493,
          -0.734,
          -0.06,
          -0.946,
          -0.146,
          -0.205,
          0.089,
          -0.356,
          -0.753,
          -0.91,
          -0.673
        ],
        [
          0.911,
          0.848,
          0.609,
          0.395,
          -0.197,
          0.458,
          0.735,
          -0.611,
          -0.411,
          0.335,
          -0.648,
          -0.74,
          -0.39,
          -0.556,
          -0.943,
          0.137
        ],
        [
          0.433,
          0.042,
          0.15,
          0.12,
          0.919,
          0.811,
          -0.134,
          0.503,
          -0.615,
          0.825,
          -0.504,
          -0.891,
          -0.439,
          0.482,
          0.78,
          0.493
        ],
        [
          -0.722,
          -0.821,
          -0.659,
          0.509,
          0.375,
          -0.18,
          -0.819,
          -0.69,
          0.196,
          0.815,
          -0.677,
          0.52,
          -0.478,
          -0.363,
          -0.919,
          -0.082
        ],
        [
          0.396,
          -0.999,
          0.764,
          -0.755,
          -0.641,
          0.298,
          -0.09,
          -0.542,
          0.432,
          -0.2,
          0.936,
          -0.314,
          0.871,
          -0.373,
          -0.578,
          0.366
        ],
        [
          0.013,
          0.932,
          0.967,
          0.021,
          -0.882,
          0.681,
          0.791,
          -0.591,
          0.817,
          0.579,
          -0.281,
          -0.923,
          -0.949,
          0.487,
          -0.033,
          0.337
        ],
        [
          0.877,
          0.341,
          -0.835,
          -0.315,
          0.066,
          -0.566,
          0.92,
          0.238,
          -0.838,
          -0.242,
          -0.063,
          0.894,
          0.581,
          0.538,
          0.174,
          0.727
        ],
        [
          -0.158,
          -0.107,
          -0.732,
          0.761,
          -0.117,
          0.659,
          -0.145,
          0.496,
          -0.574,
          0.264,
          0.513,
          0.108,
          -0.569,
          -0.486,
          -0.668,
          0.592
        ],
        [
          0.905,
          0.554,
          0.62,
          -0.31,
          -0.35,
          0.834,
          0.51,
          -0.598,
          0.245,
          -0.722,
          -0.807,
          0.435,
          0.877,
          0.217,
          -0.143,
          -0.385
        ],
        [
          0.439,
          -0.098,
          -0.879,
          -0.506,
          -0.054,
          -0.489,
          0.127,
          0.486,
          0.727,
          0.805,
          0.641,
          -0.735,
          0.545,
          0.97,
          -0.188,
          -0.012
        ],
        [
          0.06,
          -0.997,
          0.99,
          -0.468,
          -0.496,
          0.358,
          0.798,
          0.35,
          -0.049,
          -0.564,
          -0.571,
          0.551,
          -0.291,
          -0.239,
          -0.607,
          -0.134
        ],
        [
          0.623,
          0.785,
          0.044,
          0.911,
          -0.684,
          0.311,
          0.472,
          0.157,
          -0.685,
          0.089,
          0.231,
          -0.54,
          0.711,
          0.839,
          -0.229,
          0.374
        ],
        [
          -0.819,
          0.6,
          -0.958,
          0.875,
          0.795,
          -0.969,
          -0.623,
          -0.474,
          0.619,
          -0.75,
          0.187,
          -0.59,
          0.789,
          0.698,
          0.267,
          -0.28
        ],
        [
          -0.35,
          0.084,
          -0.044,
          -0.045,
          0.329,
          0.606,
          0.086,
          0.612,
          -0.645,
          0.365,
          -0.556,
          -0.629,
          0.617,
          0.15,
          -0.32,
          0.179
        ],
        [
          0.414,
          0.622,
          0.282,
          -0.387,
          0.412,
          0.971,
          0.99,
          0.22,
          -0.84,
          -0.485,
          0.033,
          -0.864,
          0.361,
          -0.678,
          0.067,
          -0.114
        ],
        [
          -0.655,
          -0.771,
          0.747,
          0.799,
          0.08,
          0.403,
          -0.937,
          0.866,
          -0.872,
          -0.13,
          -0.758,
          0.496,
          0.65,
          0.637,
          0.359,
          0.95
        ],
        [
          0.264,
          -0.585,
          -0.732,
          0.232,
          -0.944,
          -0.745,
          0.135,
          -0.685,
          0.145,
          0.261,
          0.557,
          0.254,
          0.801,
          0.856,
          -0.326,
          0.501
        ],
        [
          -0.866,
          0.414,
          0.239,
          0.725,
          -0.819,
          -0.172,
          0.304,
          -0.555,
          -0.386,
          0.176,
          0.071,
          -0.905,
          -0.296,
          0.975,
          0.599,
          -0.153
        ],
        [
          -0.266,
          -0.602,
          -0.224,
          -0.458,
          0.046,
          0.381,
          -0.081,
          0.262,
          0.573,
          0.687,
          0.525,
          -0.924,
          0.576,
          0.682,
          -0.207,
          -0.683
        ],
        [
          -0.139,
          0.263,
          0.617,
          0.624,
          0.822,
          -0.721,
          -0.242,
          0.735,
          0.346,
          -0.024,
          -0.252,
          0.766,
          -0.282,
          -0.744,
          0.366,
          -0.022
        ],
        [
          0.526,
          -0.911,
          0.682,
          0.817,
          -0.496,
          -0.484,
          0.859,
          0.627,
          0.273,
          -0.281,
          -0.779,
          0.516,
          -0.749,
          -0.122,
          0.343,
          0.352
        ],
        [
          -0.545,
          0.947,
          -0.663,
          0.625,
          0.909,
          0.456,
          0.147,
          -0.203,
          0.208,
          -0.081,
          0.596,
          -0.438,
          -0.15,
          -0.784,
          0.835,
          0.725
        ],
        [
          -0.031,
          0.09,
          0.438,
          -0.795,
          -0.715,
          -0.095,
          -0.734,
          -0.604,
          -0.39,
          -0.65,
          -0.573,
          -0.632,
          -0.146,
          -0.376,
          -0.564,
          0.718
        ],
        [
          -0.174,
          0.314,
          -0.345,
          0.382,
          -0.028,
          0.757,
          -0.533,
          -0.888,
          -0.538,
          -0.167,
          -0.393,
          -0.263,
          0.896,
          -0.683,
          -0.931,
          0.883
        ],
        [
          -0.5,
          0.718,
          -0.73,
          0.626,
          -0.13,
          -0.173,
          -0.174,
          0.386,
          0.278,
          -0.711,
          -0.894,
          -0.051,
          0.665,
          0.288,
          -0.566,
          -0.681
        ],
        [
          0.099,
          -0.441,
          -0.144,
          0.366,
          0.704,
          0.739,
          -0.84,
          0.721,
          0.667,
          0.863,
          0.848,
          0.914,
          0.905,
          0.67,
          0.903,
          -0.157
        ],
        [
          0.673,
          -0.38,
          0.141,
          0.231,
          -0.117,
          -0.964,
          0.217,
          -0.008,
          0.379,
          -0.144,
          0.807,
          -0.727,
          -0.638,
          0.596,
          -0.186,
          0.744
        ],
        [
          0.919,
          -0.864,
          0.956,
          -0.965,
          0.103,
          -0.505,
          0.927,
          0.75,
          -0.075,
          -0.376,
          -0.174,
          -0.072,
          -0.57,
          -0.36,
          0.771,
          -0.462
        ],
        [
          0.195,
          -0.832,
          0.652,
          -0.489,
          -0.046,
          0.218,
          0.885,
          0.222,
          0.696,
          -0.917,
          -0.849,
          -0.673,
          0.345,
          -0.236,
          0.665,
          0.749
        ],
        [
          0.876,
          0.369,
          0.721,
          -0.873,
          0.272,
          0.887,
          -0.782,
          -0.38,
          -0.368,
          0.483,
          -0.279,
          -0.801,
          0.135,
          0.542,
          0.95,
          0.693
        ],
        [
          -0.826,
          0.837,
          -0.262,
          0.965,
          0.504,
          0.393,
          -0.758,
          0.235,
          -0.646,
          0.037,
          0.682,
          -0.705,
          -0.062,
          -0.464,
          0.786,
          0.356
        ],
        [
          -0.73,
          -0.294,
          0.859,
          -0.906,
          -0.562,
          0.853,
          0.357,
          0.547,
          0.789,
          0.477,
          0.743,
          0.056,
          0.819,
          -0.285,
          -0.252,
          0.063
        ],
        [
          -0.617,
          -0.825,
          -0.906,
          -0.36,
          0.097,
          -0.416,
          0.698,
          0.281,
          0.501,
          -0.79,
          0.713,
          0.723,
          -0.153,
          0.609,
          -0.249,
          0.392
        ],
        [
          -0.184,
          -0.609,
          -0.253,
          0.395,
          0.127,
          0.691,
          0.025,
          0.656,
          0.637,
          -0.586,
          0.487,
          0.764,
          0.693,
          0.422,
          -0.057,
          -0.027
        ],
        [
          -0.868,
          -0.693,
          -0.445,
          0.314,
          -0.527,
          0.795,
          -0.617,
          0.927,
          -0.575,
          -0.836,
          0.04,
          -0.549,
          0.049,
          -0.032,
          -0.343,
          -0.156
        ],
        [
          -0.599,
          0.399,
          0.75,
          -0.193,
          0.376,
          0.297,
          -0.46,
          -0.437,
          0.919,
          -0.321,
          -0.628,
          -0.66,
          -0.802,
          0.134,
          0.569,
          -0.958
        ],
        [
          0.436,
          0.63,
          -0.947,
          0.756,
          0.894,
          -0.193,
          0.361,
          0.628,
          -0.761,
          -0.098,
          0.263,
          -0.841,
          -0.232,
          -0.656,
          -0.815,
          0.2
        ],
        [
          -0.518,
          -0.508,
          -0.423,
          -0.755,
          0.621,
          0.841,
          0.029,
          0.103,
          0.483,
          0.814,
          -0.375,
          0.29,
          -0.197,
          0.81,
          -0.703,
          -0.687
        ],
        [
          -0.522,
          0.768,
          0.998,
          -0.757,
          0.942,
          0.06,
          -0.293,
          -0.763,
          -0.165,
          -0.17,
          0.674,
          0.634,
          -0.85,
          0.888,
          0.158,
          0.693
        ],
        [
          0.147,
          0.929,
          0.279,
          0.006,
          -0.487,
          0.299,
          0.655,
          0.992,
          -0.273,
          -0.254,
          -0.189,
          0.348,
          0.505,
          -0.216,
          -0.99,
          0.098
        ],
        [
          -0.555,
          0.039,
          0.001,
          0.86,
          0.267,
          -0.157,
          -0.919,
          0.064,
          0.171,
          0.067,
          -0.218,
          -0.778,
          0.047,
          0.686,
          -0.591,
          -0.706
        ],
        [
          -0.103,
          0.31,
          0.24,
          0.241,
          -0.823,
          0.462,
          0.112,
          0.635,
          0.871,
          0.011,
          0.718,
          0.883,
          -0.008,
          -0.386,
          -0.977,
          -0.043
        ],
        [
          0.92,
          0.626,
          0.158,
          -0.597,
          -0.33,
          0.604,
          0.764,
          0.492,
          -0.967,
          -0.061,
          -0.385,
          -0.279,
          0.259,
          -0.508,
          0.956,
          0.2
        ],
        [
          -0.374,
          -0.638,
          0.792,
          0.175,
          0.743,
          -0.359,
          -0.024,
          -0.669,
          0.274,
          0.918,
          -0.45,
          0.966,
          0.157,
          -0.768,
          0.52,
          0.439
        ]
      ]
    },
    {
      "name": "dense2",
      "shape": [
        16,
        3
      ],
      "weights": [
        [
          -0.754,
          -0.191,
          -0.294
        ],
        [
          -0.978,
          -0.111,
          0.103
        ],
        [
          0.319,
          0.591,
          -0.314
        ],
        [
          0.477,
          -0.357,
          0.033
        ],
        [
          -0.064,
          0.559,
          0.924
        ],
        [
          0.692,
          0.976,
          0.347
        ],
        [
          0.84,
          -0.036,
          0.176
        ],
        [
          -0.69,
          -0.629,
          -0.464
        ],
        [
          -0.551,
          -0.682,
          -0.921
        ],
        [
          -0.406,
          -0.096,
          -0.653
        ],
        [
          0.287,
          -0.06,
          -0.28
        ],
        [
          0.843,
          -0.727,
          0.305
        ],
        [
          0.61,
          0.766,
          -0.484
        ],
        [
          0.15,
          -0.514,
          -0.811
        ],
        [
          -0.466,
          0.763,
          -0.037
        ],
        [
          -0.523,
          -0.945,
          0.707
        ]
      ]
    }
  ],
  "classes": [
    "circle",
    "square",
    "triangle"
  ]
}